digraph Tree {
node [shape=box] ;
0 [label="hour <= 6.5\nmse = 32810.299\nsamples = 10886\nvalue = 191.574"] ;
1 [label="hour <= 5.5\nmse = 1565.559\nsamples = 3139\nvalue = 32.582"] ;
0 -> 1 [labeldistance=2.5, labelangle=45, headlabel="True"] ;
2 [label="hour <= 1.5\nmse = 945.78\nsamples = 2684\nvalue = 25.178"] ;
1 -> 2 ;
3 [label="workingday <= 0.5\nmse = 1643.407\nsamples = 909\nvalue = 44.51"] ;
2 -> 3 ;
4 [label="hour <= 0.5\nmse = 1822.063\nsamples = 290\nvalue = 83.2"] ;
3 -> 4 ;
5 [label="mse = 2208.057\nsamples = 145\nvalue = 94.49"] ;
4 -> 5 ;
6 [label="mse = 1181.157\nsamples = 145\nvalue = 71.91"] ;
4 -> 6 ;
7 [label="hour <= 0.5\nmse = 529.872\nsamples = 619\nvalue = 26.384"] ;
3 -> 7 ;
8 [label="mse = 690.648\nsamples = 310\nvalue = 36.732"] ;
7 -> 8 ;
9 [label="mse = 153.382\nsamples = 309\nvalue = 16.003"] ;
7 -> 9 ;
10 [label="workingday <= 0.5\nmse = 299.092\nsamples = 1775\nvalue = 15.277"] ;
2 -> 10 ;
11 [label="hour <= 2.5\nmse = 556.467\nsamples = 574\nvalue = 24.274"] ;
10 -> 11 ;
12 [label="mse = 630.3\nsamples = 143\nvalue = 53.748"] ;
11 -> 12 ;
13 [label="hour <= 3.5\nmse = 148.092\nsamples = 431\nvalue = 14.494"] ;
11 -> 13 ;
14 [label="mse = 178.485\nsamples = 144\nvalue = 25.535"] ;
13 -> 14 ;
15 [label="hour <= 4.5\nmse = 40.998\nsamples = 287\nvalue = 8.955"] ;
13 -> 15 ;
16 [label="mse = 25.724\nsamples = 145\nvalue = 8.545"] ;
15 -> 16 ;
17 [label="mse = 56.248\nsamples = 142\nvalue = 9.373"] ;
15 -> 17 ;
18 [label="hour <= 4.5\nmse = 118.915\nsamples = 1201\nvalue = 10.978"] ;
10 -> 18 ;
19 [label="hour <= 2.5\nmse = 25.507\nsamples = 891\nvalue = 6.263"] ;
18 -> 19 ;
20 [label="mse = 48.259\nsamples = 305\nvalue = 8.436"] ;
19 -> 20 ;
21 [label="hour <= 3.5\nmse = 9.926\nsamples = 586\nvalue = 5.131"] ;
19 -> 21 ;
22 [label="mse = 9.189\nsamples = 289\nvalue = 4.893"] ;
21 -> 22 ;
23 [label="mse = 10.534\nsamples = 297\nvalue = 5.364"] ;
21 -> 23 ;
24 [label="mse = 139.849\nsamples = 310\nvalue = 24.529"] ;
18 -> 24 ;
25 [label="workingday <= 0.5\nmse = 2990.465\nsamples = 455\nvalue = 76.259"] ;
1 -> 25 ;
26 [label="mse = 329.469\nsamples = 145\nvalue = 19.993"] ;
25 -> 26 ;
27 [label="mse = 2061.663\nsamples = 310\nvalue = 102.577"] ;
25 -> 27 ;
28 [label="hour <= 20.5\nmse = 31077.582\nsamples = 7747\nvalue = 255.996"] ;
0 -> 28 [labeldistance=2.5, labelangle=-45, headlabel="False"] ;
29 [label="hour <= 15.5\nmse = 32410.315\nsamples = 6379\nvalue = 282.555"] ;
28 -> 29 ;
30 [label="hour <= 8.5\nmse = 24562.538\nsamples = 4099\nvalue = 243.95"] ;
29 -> 30 ;
31 [label="workingday <= 0.5\nmse = 45033.357\nsamples = 910\nvalue = 287.943"] ;
30 -> 31 ;
32 [label="hour <= 7.5\nmse = 5394.402\nsamples = 290\nvalue = 79.762"] ;
31 -> 32 ;
33 [label="mse = 1891.286\nsamples = 145\nvalue = 47.269"] ;
32 -> 33 ;
34 [label="mse = 6785.914\nsamples = 145\nvalue = 112.255"] ;
32 -> 34 ;
35 [label="hour <= 7.5\nmse = 33820.71\nsamples = 620\nvalue = 385.318"] ;
31 -> 35 ;
36 [label="mse = 17353.156\nsamples = 310\nvalue = 290.69"] ;
35 -> 36 ;
37 [label="mse = 32379.568\nsamples = 310\nvalue = 479.945"] ;
35 -> 37 ;
38 [label="workingday <= 0.5\nmse = 18011.206\nsamples = 3189\nvalue = 231.396"] ;
30 -> 38 ;
39 [label="hour <= 10.5\nmse = 26949.468\nsamples = 1015\nvalue = 326.64"] ;
38 -> 39 ;
40 [label="hour <= 9.5\nmse = 12970.951\nsamples = 290\nvalue = 220.866"] ;
39 -> 40 ;
41 [label="mse = 8027.891\nsamples = 145\nvalue = 177.924"] ;
40 -> 41 ;
42 [label="mse = 14226.087\nsamples = 145\nvalue = 263.807"] ;
40 -> 42 ;
43 [label="hour <= 11.5\nmse = 26275.413\nsamples = 725\nvalue = 368.95"] ;
39 -> 43 ;
44 [label="mse = 21305.547\nsamples = 145\nvalue = 325.386"] ;
43 -> 44 ;
45 [label="hour <= 13.5\nmse = 26924.806\nsamples = 580\nvalue = 379.841"] ;
43 -> 45 ;
46 [label="hour <= 12.5\nmse = 27667.932\nsamples = 290\nvalue = 383.466"] ;
45 -> 46 ;
47 [label="mse = 26271.85\nsamples = 145\nvalue = 379.11"] ;
46 -> 47 ;
48 [label="mse = 29026.078\nsamples = 145\nvalue = 387.821"] ;
46 -> 48 ;
49 [label="hour <= 14.5\nmse = 26155.411\nsamples = 290\nvalue = 376.217"] ;
45 -> 49 ;
50 [label="mse = 27157.659\nsamples = 145\nvalue = 378.731"] ;
49 -> 50 ;
51 [label="mse = 25140.526\nsamples = 145\nvalue = 373.703"] ;
49 -> 51 ;
52 [label="hour <= 9.5\nmse = 7625.446\nsamples = 2174\nvalue = 186.929"] ;
38 -> 52 ;
53 [label="mse = 7347.001\nsamples = 310\nvalue = 242.294"] ;
52 -> 53 ;
54 [label="hour <= 11.5\nmse = 7077.191\nsamples = 1864\nvalue = 177.721"] ;
52 -> 54 ;
55 [label="hour <= 10.5\nmse = 4091.949\nsamples = 620\nvalue = 145.308"] ;
54 -> 55 ;
56 [label="mse = 3122.131\nsamples = 310\nvalue = 133.597"] ;
55 -> 56 ;
57 [label="mse = 4787.458\nsamples = 310\nvalue = 157.019"] ;
55 -> 57 ;
58 [label="hour <= 13.5\nmse = 7780.439\nsamples = 1244\nvalue = 193.875"] ;
54 -> 58 ;
59 [label="hour <= 12.5\nmse = 7613.402\nsamples = 622\nvalue = 198.254"] ;
58 -> 59 ;
60 [label="mse = 7763.024\nsamples = 311\nvalue = 199.347"] ;
59 -> 60 ;
61 [label="mse = 7461.389\nsamples = 311\nvalue = 197.161"] ;
59 -> 61 ;
62 [label="hour <= 14.5\nmse = 7909.131\nsamples = 622\nvalue = 189.497"] ;
58 -> 62 ;
63 [label="mse = 6683.113\nsamples = 311\nvalue = 180.367"] ;
62 -> 63 ;
64 [label="mse = 8968.427\nsamples = 311\nvalue = 198.627"] ;
62 -> 64 ;
65 [label="hour <= 18.5\nmse = 39022.862\nsamples = 2280\nvalue = 351.959"] ;
29 -> 65 ;
66 [label="hour <= 16.5\nmse = 43993.359\nsamples = 1368\nvalue = 405.333"] ;
65 -> 66 ;
67 [label="workingday <= 0.5\nmse = 21171.699\nsamples = 456\nvalue = 316.373"] ;
66 -> 67 ;
68 [label="mse = 26307.166\nsamples = 145\nvalue = 367.648"] ;
67 -> 68 ;
69 [label="mse = 16980.004\nsamples = 311\nvalue = 292.466"] ;
67 -> 69 ;
70 [label="workingday <= 0.5\nmse = 49468.806\nsamples = 912\nvalue = 449.812"] ;
66 -> 70 ;
71 [label="hour <= 17.5\nmse = 25679.284\nsamples = 290\nvalue = 315.686"] ;
70 -> 71 ;
72 [label="mse = 27485.902\nsamples = 145\nvalue = 339.124"] ;
71 -> 72 ;
73 [label="mse = 22773.994\nsamples = 145\nvalue = 292.248"] ;
71 -> 73 ;
74 [label="hour <= 17.5\nmse = 48262.23\nsamples = 622\nvalue = 512.347"] ;
70 -> 74 ;
75 [label="mse = 48957.143\nsamples = 311\nvalue = 529.209"] ;
74 -> 75 ;
76 [label="mse = 46998.681\nsamples = 311\nvalue = 495.486"] ;
74 -> 76 ;
77 [label="hour <= 19.5\nmse = 20884.245\nsamples = 912\nvalue = 271.898"] ;
65 -> 77 ;
78 [label="workingday <= 0.5\nmse = 24482.824\nsamples = 456\nvalue = 315.279"] ;
77 -> 78 ;
79 [label="mse = 15939.302\nsamples = 145\nvalue = 242.345"] ;
78 -> 79 ;
80 [label="mse = 24829.766\nsamples = 311\nvalue = 349.283"] ;
78 -> 80 ;
81 [label="workingday <= 0.5\nmse = 13521.934\nsamples = 456\nvalue = 228.518"] ;
77 -> 81 ;
82 [label="mse = 9967.397\nsamples = 145\nvalue = 183.807"] ;
81 -> 82 ;
83 [label="mse = 13812.617\nsamples = 311\nvalue = 249.363"] ;
81 -> 83 ;
84 [label="hour <= 22.5\nmse = 6236.566\nsamples = 1368\nvalue = 132.152"] ;
28 -> 84 ;
85 [label="hour <= 21.5\nmse = 6660.694\nsamples = 912\nvalue = 153.474"] ;
84 -> 85 ;
86 [label="workingday <= 0.5\nmse = 7662.058\nsamples = 456\nvalue = 173.371"] ;
85 -> 86 ;
87 [label="mse = 7615.076\nsamples = 145\nvalue = 148.738"] ;
86 -> 87 ;
88 [label="mse = 7269.166\nsamples = 311\nvalue = 184.855"] ;
86 -> 88 ;
89 [label="workingday <= 0.5\nmse = 4867.556\nsamples = 456\nvalue = 133.577"] ;
85 -> 89 ;
90 [label="mse = 5643.994\nsamples = 145\nvalue = 123.352"] ;
89 -> 90 ;
91 [label="mse = 4434.078\nsamples = 311\nvalue = 138.344"] ;
89 -> 91 ;
92 [label="workingday <= 0.5\nmse = 2660.636\nsamples = 456\nvalue = 89.509"] ;
84 -> 92 ;
93 [label="mse = 3081.039\nsamples = 145\nvalue = 90.607"] ;
92 -> 93 ;
94 [label="mse = 2463.804\nsamples = 311\nvalue = 88.997"] ;
92 -> 94 ;
}